svm_type c_svc
kernel_type linear
nr_class 3
total_sv 9
rho -0.6135 -0.590697 0.0286123
label 1 2 0
nr_sv 6 1 2
SV
0.06178199170153646 0.07302255019779062 15:1 19:1 29:1 33:1 
0.1289189027229893 0.3666913551714964 2:1 7:1 26:1 
0.04636658877472753 0.05477967106519219 10:1 24:1 28:1 33:1 35:1 
0.04633649377615233 0.05486040579272979 4:1 6:1 27:1 33:1 37:1 
0.3348953721034765 0.1339188621368522 18:1 21:1 25:1 
0.04680527881764144 0.007709210150604853 5:1 8:1 12:1 13:1 14:1 16:1 21:1 23:1 30:1 32:1 33:1 36:1 
-0.6651046278965235 0.3428112139917696 3:1 9:1 21:1 
-0.5758709714000967 -0.2856760116598079 11:1 26:1 31:1 
-0.1151110831145691 -0.05713520233196159 1:1 11:1 17:1 20:1 22:1 26:1 34:1 
